{
    "in_shape": [
        null,
        1,
        1
    ],
    "layers": [
        {
            "type": "conv1d",
            "activation": "",
            "shape": [
                null,
                1,
                16
            ],
            "kernel_size": [
                12
            ],
            "dilation": [
                1
            ],
            "weights": [
                [
                    [
                        [
                            0.00360146164894104,
                            -0.16350804269313812,
                            0.10462857782840729,
                            -0.0047660768032073975,
                            0.08318455517292023,
                            -0.004341542720794678,
                            -0.1663370281457901,
                            0.16213460266590118,
                            0.08073107898235321,
                            0.11106599867343903,
                            0.12938173115253448,
                            0.0062333643436431885,
                            -0.08978714793920517,
                            -0.10574202239513397,
                            0.13651280105113983,
                            -0.0714120864868164
                        ]
                    ],
                    [
                        [
                            -0.15075600147247314,
                            -0.006181389093399048,
                            -0.06565208733081818,
                            0.09462951123714447,
                            -0.04589110612869263,
                            0.12974779307842255,
                            -0.030260756611824036,
                            0.09809143841266632,
                            -0.05473409593105316,
                            -0.019027188420295715,
                            0.054548874497413635,
                            -0.053571924567222595,
                            -0.07706135511398315,
                            0.08588875830173492,
                            -0.09639431536197662,
                            -0.16531804203987122
                        ]
                    ],
                    [
                        [
                            -0.029620036482810974,
                            0.05968911945819855,
                            0.09344159066677094,
                            0.09293033182621002,
                            -0.1276153326034546,
                            0.01999625563621521,
                            -0.0329233855009079,
                            0.06850969791412354,
                            -0.016966089606285095,
                            -0.0828971192240715,
                            0.06559450924396515,
                            0.11412177979946136,
                            -0.0572599396109581,
                            0.16352839767932892,
                            -0.16152127087116241,
                            -0.08572912961244583
                        ]
                    ],
                    [
                        [
                            0.1406833380460739,
                            -0.04817628115415573,
                            0.09705613553524017,
                            0.052921146154403687,
                            0.16348956525325775,
                            0.022514045238494873,
                            -0.16078098118305206,
                            0.12114499509334564,
                            -0.11416169255971909,
                            0.1263643056154251,
                            0.16798089444637299,
                            -0.13758164644241333,
                            0.08360956609249115,
                            -0.06645423918962479,
                            -0.019534334540367126,
                            -0.13824045658111572
                        ]
                    ],
                    [
                        [
                            0.08360461890697479,
                            -0.06586049497127533,
                            0.0019851326942443848,
                            0.07584811747074127,
                            0.09712694585323334,
                            0.1268347054719925,
                            -0.03897777199745178,
                            0.01474793255329132,
                            0.08836136758327484,
                            0.046107783913612366,
                            -0.05217815935611725,
                            -0.07041587680578232,
                            -0.10844790190458298,
                            0.04086914658546448,
                            0.1611412614583969,
                            -0.004226267337799072
                        ]
                    ],
                    [
                        [
                            0.7143771648406982,
                            -0.7093685865402222,
                            0.7629764080047607,
                            -0.7630144953727722,
                            0.6681814789772034,
                            0.6940320134162903,
                            -0.42447429895401,
                            -0.7179180979728699,
                            0.7467913031578064,
                            0.7404583692550659,
                            0.7139469981193542,
                            -0.4363998472690582,
                            -0.013517235405743122,
                            0.6222565174102783,
                            0.554204523563385,
                            0.6769530177116394
                        ]
                    ],
                    [
                        [
                            0.04116746783256531,
                            0.11014802753925323,
                            0.13207001984119415,
                            -0.10493002086877823,
                            -0.08638568222522736,
                            0.02940353751182556,
                            -0.03988274931907654,
                            0.10567750036716461,
                            -0.047367505729198456,
                            0.013064593076705933,
                            -0.1409529149532318,
                            0.07949565351009369,
                            0.06807513535022736,
                            0.020684897899627686,
                            0.15261141955852509,
                            -0.11934949457645416
                        ]
                    ],
                    [
                        [
                            0.06856010854244232,
                            0.1558394879102707,
                            -0.15132875740528107,
                            -0.0021728873252868652,
                            0.17096997797489166,
                            -0.09095001220703125,
                            0.04900047183036804,
                            -0.012282192707061768,
                            -0.035310521721839905,
                            -0.1476622074842453,
                            -0.08746787160634995,
                            -0.014683157205581665,
                            0.11936183273792267,
                            0.1510106474161148,
                            -0.004213601350784302,
                            -0.052308589220047
                        ]
                    ],
                    [
                        [
                            0.15919362008571625,
                            0.004211261868476868,
                            -0.07259551435709,
                            -0.11329318583011627,
                            -0.10640020668506622,
                            0.06391207873821259,
                            0.038237810134887695,
                            0.12872479856014252,
                            0.02150385081768036,
                            -0.022216126322746277,
                            -0.04052719473838806,
                            0.01169516146183014,
                            -0.16640286147594452,
                            -0.08676430583000183,
                            0.11346040666103363,
                            -0.1091717928647995
                        ]
                    ],
                    [
                        [
                            -0.11489935964345932,
                            -0.053120844066143036,
                            -0.11929519474506378,
                            0.1623324602842331,
                            0.1669120341539383,
                            0.11438818275928497,
                            0.0985366553068161,
                            0.06914150714874268,
                            -0.052323274314403534,
                            -0.06598066538572311,
                            0.030783846974372864,
                            0.023603394627571106,
                            -0.1251256763935089,
                            -0.1101483702659607,
                            0.034351691603660583,
                            0.09838007390499115
                        ]
                    ],
                    [
                        [
                            0.06954360008239746,
                            -0.08636274188756943,
                            -0.019863083958625793,
                            -0.06636089086532593,
                            0.16379393637180328,
                            -0.06738702207803726,
                            0.1344050019979477,
                            -0.007728442549705505,
                            -0.15072496235370636,
                            0.03663654625415802,
                            -0.11635907739400864,
                            -0.16130876541137695,
                            0.00970691442489624,
                            -0.09170322120189667,
                            0.060480594635009766,
                            0.12353043258190155
                        ]
                    ],
                    [
                        [
                            0.0362226665019989,
                            0.0524875670671463,
                            -0.08753681182861328,
                            0.039600834250450134,
                            -0.0617523118853569,
                            0.11553214490413666,
                            0.07752187550067902,
                            -0.1649666130542755,
                            0.09280954301357269,
                            0.16254495084285736,
                            0.16865156590938568,
                            -0.07159121334552765,
                            -0.0456465482711792,
                            -0.14385688304901123,
                            -0.03426869213581085,
                            0.031018629670143127
                        ]
                    ]
                ],
                [
                    -0.005629373714327812,
                    0.001605777069926262,
                    0.004985278006643057,
                    0.0026953048072755337,
                    0.0009138849563896656,
                    0.0011917105875909328,
                    0.0014559054980054498,
                    -0.0028505942318588495,
                    -1.0635820217430592e-05,
                    -0.0020274193957448006,
                    -0.0012579180765897036,
                    0.0011092725908383727,
                    -0.0015934229595586658,
                    0.004235480912029743,
                    -0.0012714515905827284,
                    0.0007509746355935931
                ]
            ]
        },
        {
            "type": "conv1d",
            "activation": "",
            "shape": [
                null,
                1,
                16
            ],
            "kernel_size": [
                12
            ],
            "dilation": [
                1
            ],
            "weights": [
                [
                    [
                        [
                            -0.056783467531204224,
                            -0.028520435094833374,
                            0.09958386421203613,
                            -0.0722665786743164,
                            -0.06699037551879883,
                            0.07161509990692139,
                            0.11023649573326111,
                            0.005472689867019653,
                            -0.09097018837928772,
                            -0.11725613474845886,
                            -0.054008692502975464,
                            0.0985371470451355,
                            -0.09583857655525208,
                            0.07142674922943115,
                            -0.049418866634368896,
                            0.024403899908065796
                        ],
                        [
                            -0.014187544584274292,
                            -0.12297549843788147,
                            -0.04045388102531433,
                            0.020032107830047607,
                            0.04374295473098755,
                            0.039938777685165405,
                            0.011193037033081055,
                            -0.01998138427734375,
                            0.0823119580745697,
                            0.08746781945228577,
                            -0.08446261286735535,
                            0.030552834272384644,
                            -0.10811507701873779,
                            -0.03857412934303284,
                            0.08627817034721375,
                            -0.09693706035614014
                        ],
                        [
                            -0.11679333448410034,
                            -0.05823478102684021,
                            -0.12198179960250854,
                            -0.04766911268234253,
                            0.08438980579376221,
                            0.020714223384857178,
                            -0.003637969493865967,
                            0.029376983642578125,
                            0.03419208526611328,
                            0.035144686698913574,
                            -0.10791787505149841,
                            -0.0897170901298523,
                            0.11417478322982788,
                            -0.06747746467590332,
                            -0.04632481932640076,
                            -0.11799770593643188
                        ],
                        [
                            -0.06893777847290039,
                            -0.08505558967590332,
                            -0.09278476238250732,
                            -0.10727104544639587,
                            0.08777198195457458,
                            -0.10840865969657898,
                            0.09452208876609802,
                            -0.10670870542526245,
                            -0.08129975199699402,
                            0.11733955144882202,
                            0.008659809827804565,
                            -0.015351653099060059,
                            0.06614071130752563,
                            -0.06274288892745972,
                            -0.06010591983795166,
                            0.08845847845077515
                        ],
                        [
                            -0.01344349980354309,
                            -0.11774846911430359,
                            0.04357999563217163,
                            -0.12134447693824768,
                            0.10305988788604736,
                            0.12306720018386841,
                            0.043782204389572144,
                            -0.027310580015182495,
                            -0.07102072238922119,
                            -0.01075667142868042,
                            -0.11425355076789856,
                            0.05087590217590332,
                            0.023456543684005737,
                            -0.06335979700088501,
                            0.056783318519592285,
                            -0.05964633822441101
                        ],
                        [
                            -0.11750149726867676,
                            -0.045330971479415894,
                            -0.062985360622406,
                            0.11774712800979614,
                            0.06782203912734985,
                            -0.04212069511413574,
                            -0.07855275273323059,
                            0.02860453724861145,
                            0.07666903734207153,
                            -0.09326139092445374,
                            -0.11329016089439392,
                            0.08103013038635254,
                            -0.02201157808303833,
                            -0.050579965114593506,
                            0.08009308576583862,
                            0.03608471155166626
                        ],
                        [
                            -0.015896379947662354,
                            -0.00784224271774292,
                            -0.02885165810585022,
                            -0.014242947101593018,
                            -0.007386326789855957,
                            -0.04782858490943909,
                            -0.054582953453063965,
                            0.04048866033554077,
                            -0.03779339790344238,
                            0.08940437436103821,
                            0.12317806482315063,
                            0.03308430314064026,
                            0.08389034867286682,
                            -0.05534657835960388,
                            -0.002313077449798584,
                            0.04635336995124817
                        ],
                        [
                            0.01962381601333618,
                            -0.03417930006980896,
                            0.1096687912940979,
                            0.06984877586364746,
                            0.10927873849868774,
                            -0.08126771450042725,
                            -0.10517409443855286,
                            0.09617757797241211,
                            -0.06693455576896667,
                            -0.009869962930679321,
                            -0.10034507513046265,
                            0.029736071825027466,
                            0.09210976958274841,
                            0.10204797983169556,
                            -0.047039806842803955,
                            -0.058468639850616455
                        ],
                        [
                            0.01799321174621582,
                            0.03272312879562378,
                            0.02596050500869751,
                            -0.06671065092086792,
                            0.042101502418518066,
                            0.12416204810142517,
                            -0.006860554218292236,
                            -0.09193813800811768,
                            0.11352673172950745,
                            0.02970331907272339,
                            -0.05093690752983093,
                            -0.02939644455909729,
                            0.021607279777526855,
                            -0.11372393369674683,
                            -0.03347179293632507,
                            0.05993074178695679
                        ],
                        [
                            0.1198810338973999,
                            -0.07610571384429932,
                            -0.034349262714385986,
                            -0.1009218692779541,
                            0.020227819681167603,
                            0.1216755211353302,
                            -0.012066692113876343,
                            0.06477013230323792,
                            0.04373675584793091,
                            0.049768298864364624,
                            0.06380069255828857,
                            0.07427853345870972,
                            -0.11701378226280212,
                            0.09031689167022705,
                            0.030529946088790894,
                            -0.05862504243850708
                        ],
                        [
                            0.010744988918304443,
                            0.05287575721740723,
                            0.044635921716690063,
                            -0.02186828851699829,
                            -0.10428369045257568,
                            0.11629155278205872,
                            -0.028629332780838013,
                            0.07613939046859741,
                            -0.06345230340957642,
                            -0.045526206493377686,
                            0.0659947395324707,
                            -0.09272247552871704,
                            -0.1197068989276886,
                            -0.004042953252792358,
                            -0.12015631794929504,
                            -0.08536902070045471
                        ],
                        [
                            0.04611802101135254,
                            -0.039597511291503906,
                            0.045801371335983276,
                            -0.06213518977165222,
                            -0.05719655752182007,
                            0.11468666791915894,
                            -0.06128627061843872,
                            -0.06506729125976562,
                            -0.012844443321228027,
                            0.06548875570297241,
                            0.09757047891616821,
                            0.05225411057472229,
                            0.029244989156723022,
                            -0.11586642265319824,
                            -0.05369791388511658,
                            0.09230971336364746
                        ],
                        [
                            -0.039396464824676514,
                            -0.05881929397583008,
                            0.043509483337402344,
                            0.00989791750907898,
                            0.07702231407165527,
                            0.10571229457855225,
                            -0.0016897022724151611,
                            0.04080292582511902,
                            0.06028667092323303,
                            0.06833440065383911,
                            0.03192776441574097,
                            -0.027776896953582764,
                            0.01049545407295227,
                            0.0828181803226471,
                            0.09393170475959778,
                            0.04524138569831848
                        ],
                        [
                            0.08239436149597168,
                            -0.07191947102546692,
                            -0.08948934078216553,
                            -0.023540377616882324,
                            -0.000522911548614502,
                            0.11416199803352356,
                            -0.03925630450248718,
                            0.011840969324111938,
                            0.11649736762046814,
                            0.07893362641334534,
                            0.032510578632354736,
                            0.04196879267692566,
                            -0.009203195571899414,
                            -0.0953001081943512,
                            0.02844029664993286,
                            0.08792483806610107
                        ],
                        [
                            0.0466611385345459,
                            -0.010600954294204712,
                            -0.09113210439682007,
                            0.05490139126777649,
                            0.09975075721740723,
                            -0.10520115494728088,
                            0.10998570919036865,
                            0.1171559989452362,
                            0.006373494863510132,
                            0.0022566020488739014,
                            -0.060012996196746826,
                            -0.014856278896331787,
                            -0.020545214414596558,
                            -0.03073859214782715,
                            0.014935225248336792,
                            -0.04570940136909485
                        ],
                        [
                            0.04673558473587036,
                            -0.038181453943252563,
                            -0.033907800912857056,
                            -0.00277063250541687,
                            -0.06646817922592163,
                            0.022716015577316284,
                            0.07063734531402588,
                            -0.02037668228149414,
                            -0.023000270128250122,
                            0.07722851634025574,
                            0.12208250164985657,
                            -0.09749147295951843,
                            0.020832031965255737,
                            -0.017859727144241333,
                            -0.056111693382263184,
                            -0.11989262700080872
                        ]
                    ],
                    [
                        [
                            -0.0668008029460907,
                            -0.09605333209037781,
                            0.08149513602256775,
                            0.06857123970985413,
                            0.11726772785186768,
                            -0.0939493477344513,
                            0.062198638916015625,
                            0.06886273622512817,
                            0.11491897702217102,
                            -0.09552925825119019,
                            0.06373688578605652,
                            -0.07703185081481934,
                            -0.01925814151763916,
                            -0.11684203147888184,
                            0.09106746315956116,
                            -0.09921574592590332
                        ],
                        [
                            0.03254851698875427,
                            -0.0024738311767578125,
                            -0.11298325657844543,
                            -0.08092358708381653,
                            -0.06318485736846924,
                            -0.06076899170875549,
                            0.06730133295059204,
                            0.11130103468894958,
                            0.07388609647750854,
                            -0.11173927783966064,
                            -0.02052745223045349,
                            -0.057922422885894775,
                            -0.026066362857818604,
                            -0.0942223072052002,
                            0.07527092099189758,
                            0.012495458126068115
                        ],
                        [
                            0.10138985514640808,
                            -0.08381319046020508,
                            0.0020602941513061523,
                            -0.0023754239082336426,
                            -0.06667423248291016,
                            0.11966851353645325,
                            -0.1209169328212738,
                            0.0955306887626648,
                            -0.04966551065444946,
                            -0.06110098958015442,
                            0.10812121629714966,
                            0.11669835448265076,
                            -0.10255712270736694,
                            -0.1052795946598053,
                            0.03983578085899353,
                            0.10673406720161438
                        ],
                        [
                            0.054499268531799316,
                            0.04055425524711609,
                            0.01524209976196289,
                            0.06454125046730042,
                            0.02615293860435486,
                            -0.08150571584701538,
                            0.061774104833602905,
                            0.07356366515159607,
                            0.08483138680458069,
                            0.0852760374546051,
                            -0.0966242253780365,
                            -0.04875975847244263,
                            -0.07912793755531311,
                            -0.05252769589424133,
                            0.06822270154953003,
                            -0.019232839345932007
                        ],
                        [
                            -0.09676283597946167,
                            -0.04769524931907654,
                            0.11894109845161438,
                            -0.07093259692192078,
                            0.012597978115081787,
                            -0.032472848892211914,
                            0.007199704647064209,
                            -0.04468071460723877,
                            0.012251883745193481,
                            -0.06375846266746521,
                            -0.06545475125312805,
                            0.07438191771507263,
                            0.005859971046447754,
                            0.07451793551445007,
                            -0.08640196919441223,
                            -0.10090169310569763
                        ],
                        [
                            0.10245934128761292,
                            -0.008430898189544678,
                            -0.09546995162963867,
                            0.07098206877708435,
                            -0.09233075380325317,
                            0.08826777338981628,
                            0.03697389364242554,
                            0.008246392011642456,
                            -0.050303518772125244,
                            -0.018235445022583008,
                            -0.01755821704864502,
                            -0.1133016049861908,
                            -0.10478317737579346,
                            -0.04561212658882141,
                            -0.08201634883880615,
                            -0.016905486583709717
                        ],
                        [
                            0.11233359575271606,
                            -0.023043423891067505,
                            0.024608492851257324,
                            0.09318625926971436,
                            0.03426578640937805,
                            -0.11758217215538025,
                            0.1009325385093689,
                            0.06065461039543152,
                            -0.059293508529663086,
                            0.028850287199020386,
                            0.03567230701446533,
                            0.017817378044128418,
                            -0.11903473734855652,
                            0.0013071298599243164,
                            -0.11792537569999695,
                            -0.03601190447807312
                        ],
                        [
                            0.04606044292449951,
                            -0.09071481227874756,
                            0.11455407738685608,
                            0.05107489228248596,
                            0.01781436800956726,
                            -0.10653358697891235,
                            0.06633904576301575,
                            -0.038701385259628296,
                            -0.03302118182182312,
                            -0.03271368145942688,
                            -0.08642184734344482,
                            0.04230445623397827,
                            -0.04882916808128357,
                            0.0205097496509552,
                            -0.11871340870857239,
                            -0.060988545417785645
                        ],
                        [
                            0.10158708691596985,
                            0.004037529230117798,
                            -0.016457557678222656,
                            0.014242172241210938,
                            -0.018503814935684204,
                            0.036300718784332275,
                            -0.023686528205871582,
                            0.07927349209785461,
                            -0.11949354410171509,
                            0.013605266809463501,
                            0.07563024759292603,
                            0.09809479117393494,
                            0.034259289503097534,
                            -0.047203660011291504,
                            0.11667501926422119,
                            -0.05698797106742859
                        ],
                        [
                            -0.09349170327186584,
                            0.07526892423629761,
                            0.10462194681167603,
                            -0.03216633200645447,
                            0.09075301885604858,
                            -0.03712514042854309,
                            -0.09200656414031982,
                            -0.04991823434829712,
                            -0.06284913420677185,
                            -0.02730146050453186,
                            0.006144136190414429,
                            0.08905497193336487,
                            0.11267822980880737,
                            0.11940991878509521,
                            0.04996892809867859,
                            -0.09187090396881104
                        ],
                        [
                            0.10632973909378052,
                            -0.07112494111061096,
                            -0.04503282904624939,
                            0.036457717418670654,
                            -0.029899686574935913,
                            -0.05760204792022705,
                            0.024189680814743042,
                            -0.015376776456832886,
                            -0.064740389585495,
                            0.001752704381942749,
                            0.1227903962135315,
                            -0.032157570123672485,
                            -0.08822721242904663,
                            0.029576539993286133,
                            0.04872807860374451,
                            -0.050050973892211914
                        ],
                        [
                            -0.09655371308326721,
                            0.07749071717262268,
                            0.12104907631874084,
                            -0.047326624393463135,
                            0.06648793816566467,
                            0.06547704339027405,
                            -0.02301579713821411,
                            0.0844806432723999,
                            0.0665929913520813,
                            0.0965627133846283,
                            0.00733610987663269,
                            0.013670861721038818,
                            -0.01620393991470337,
                            -0.04615449905395508,
                            -0.012548297643661499,
                            0.09414279460906982
                        ],
                        [
                            0.028605163097381592,
                            0.024743735790252686,
                            0.12426391243934631,
                            0.07673066854476929,
                            -0.044755905866622925,
                            -0.05872321128845215,
                            -0.01907801628112793,
                            -0.11999699473381042,
                            0.07274988293647766,
                            -0.014840006828308105,
                            -0.06264808773994446,
                            -0.10055491328239441,
                            -0.07828629016876221,
                            0.1184481680393219,
                            -0.07730886340141296,
                            -0.09589946269989014
                        ],
                        [
                            0.058443158864974976,
                            -0.08313393592834473,
                            0.014961808919906616,
                            0.01647871732711792,
                            -0.08742621541023254,
                            -0.088858962059021,
                            -0.11550372838973999,
                            0.0465700626373291,
                            -0.11106356978416443,
                            0.054733842611312866,
                            -0.032854288816452026,
                            0.07864102721214294,
                            0.10041871666908264,
                            -0.036175310611724854,
                            -0.06790849566459656,
                            0.07931873202323914
                        ],
                        [
                            -0.0747540295124054,
                            0.05001768469810486,
                            -0.10253474116325378,
                            -0.09395912289619446,
                            -0.09435173869132996,
                            0.11816766858100891,
                            -0.12174585461616516,
                            0.031183600425720215,
                            0.08565327525138855,
                            0.02476203441619873,
                            -0.081368088722229,
                            -0.005360007286071777,
                            0.05968785285949707,
                            -0.08650204539299011,
                            0.04544058442115784,
                            -0.01581817865371704
                        ],
                        [
                            0.048588186502456665,
                            -0.0714465081691742,
                            0.12420019507408142,
                            0.04179650545120239,
                            0.09477180242538452,
                            0.005125313997268677,
                            0.07491880655288696,
                            -0.047721922397613525,
                            -0.11158400774002075,
                            0.003898113965988159,
                            0.08815464377403259,
                            -0.11043664813041687,
                            0.07291373610496521,
                            0.07572159171104431,
                            -0.014630675315856934,
                            -0.10355761647224426
                        ]
                    ],
                    [
                        [
                            -0.02895238995552063,
                            0.02429988980293274,
                            -0.11659005284309387,
                            -0.041976749897003174,
                            -0.009343117475509644,
                            -0.09114059805870056,
                            0.05171799659729004,
                            0.0613807737827301,
                            -0.04228219389915466,
                            0.03327777981758118,
                            -0.0914435088634491,
                            -0.12320548295974731,
                            -0.009471088647842407,
                            -0.026836484670639038,
                            -0.011688828468322754,
                            -0.035844385623931885
                        ],
                        [
                            0.06672284007072449,
                            -0.12061774730682373,
                            0.04913857579231262,
                            -0.03176108002662659,
                            -0.12066340446472168,
                            0.09567037224769592,
                            0.11726212501525879,
                            0.013047218322753906,
                            0.04125601053237915,
                            0.03720852732658386,
                            -0.12296470999717712,
                            -0.028150111436843872,
                            0.020231187343597412,
                            0.06884992122650146,
                            0.10210645198822021,
                            0.04207128286361694
                        ],
                        [
                            0.06675764918327332,
                            0.016459107398986816,
                            -0.09830436110496521,
                            0.07589006423950195,
                            0.055839866399765015,
                            0.000786513090133667,
                            -0.061924755573272705,
                            0.05014672875404358,
                            -0.08684715628623962,
                            -0.08021891117095947,
                            -0.053983867168426514,
                            0.04211926460266113,
                            0.05574086308479309,
                            0.07790938019752502,
                            -0.10358083248138428,
                            0.11023741960525513
                        ],
                        [
                            -0.007580995559692383,
                            -0.029900819063186646,
                            0.017608314752578735,
                            -0.03318214416503906,
                            0.09719446301460266,
                            -0.09382617473602295,
                            -0.08088859915733337,
                            0.038847893476486206,
                            0.07770922780036926,
                            -0.0009802281856536865,
                            -0.01566767692565918,
                            0.06183803081512451,
                            0.0824512243270874,
                            -0.05223211646080017,
                            0.04481753706932068,
                            -0.009377270936965942
                        ],
                        [
                            -0.022576957941055298,
                            0.11105227470397949,
                            0.07089483737945557,
                            -0.03814747929573059,
                            -0.07627388834953308,
                            0.11841216683387756,
                            0.07080110907554626,
                            -0.06498479843139648,
                            -0.06144624948501587,
                            -0.05816394090652466,
                            0.03144103288650513,
                            -0.1066519021987915,
                            -0.043703049421310425,
                            0.10086140036582947,
                            -0.016776084899902344,
                            0.11505818367004395
                        ],
                        [
                            0.11412277817726135,
                            -0.029978692531585693,
                            -0.010423034429550171,
                            -0.05199727416038513,
                            -0.10462924838066101,
                            -0.050785332918167114,
                            -0.09998470544815063,
                            0.011475533246994019,
                            0.11237010359764099,
                            -0.06541499495506287,
                            -0.1129995584487915,
                            -0.04240313172340393,
                            -0.06524071097373962,
                            -0.07871028780937195,
                            -0.09715908765792847,
                            -0.02937406301498413
                        ],
                        [
                            0.07294857501983643,
                            0.09326714277267456,
                            -0.09902438521385193,
                            0.06278088688850403,
                            -0.024239152669906616,
                            -0.036514848470687866,
                            0.10858622193336487,
                            -0.026874691247940063,
                            0.05517846345901489,
                            0.1034848690032959,
                            -0.015123456716537476,
                            -0.054171741008758545,
                            0.006548523902893066,
                            -0.08014535903930664,
                            -0.007318824529647827,
                            0.03951409459114075
                        ],
                        [
                            -0.0433402955532074,
                            0.10148406028747559,
                            0.02180725336074829,
                            -0.0887543261051178,
                            -0.012778103351593018,
                            0.013493180274963379,
                            -0.08592131733894348,
                            -0.008374571800231934,
                            0.08176854252815247,
                            -0.10408160090446472,
                            -0.10399767756462097,
                            0.11963894963264465,
                            0.019444137811660767,
                            0.03821218013763428,
                            0.0569615364074707,
                            0.03557103872299194
                        ],
                        [
                            -0.027142375707626343,
                            -0.09897312521934509,
                            0.005363374948501587,
                            -0.05280217528343201,
                            -0.030888408422470093,
                            -0.09823507070541382,
                            -0.10908189415931702,
                            -0.060228437185287476,
                            0.020597100257873535,
                            -0.03821578621864319,
                            -0.023558497428894043,
                            -0.06954166293144226,
                            -0.005265623331069946,
                            0.007377564907073975,
                            0.027993232011795044,
                            0.05063426494598389
                        ],
                        [
                            -0.0988723635673523,
                            0.07025009393692017,
                            -0.08616802096366882,
                            0.04170587658882141,
                            -0.0036582350730895996,
                            -0.013008922338485718,
                            0.08778464794158936,
                            0.08102354407310486,
                            0.036883533000946045,
                            0.04289016127586365,
                            0.0857052206993103,
                            -0.10876506567001343,
                            -0.02764993906021118,
                            0.03539791703224182,
                            -0.04933282732963562,
                            0.10646325349807739
                        ],
                        [
                            -0.027515292167663574,
                            0.0013980567455291748,
                            0.052150070667266846,
                            -0.0525546669960022,
                            -0.06261551380157471,
                            -0.0384652316570282,
                            -0.060212790966033936,
                            0.006804108619689941,
                            0.0386691689491272,
                            0.06232866644859314,
                            0.09866142272949219,
                            -0.060683637857437134,
                            -0.018088966608047485,
                            -0.11433538794517517,
                            -0.086886465549469,
                            0.09821310639381409
                        ],
                        [
                            0.1031283438205719,
                            0.09155011177062988,
                            -0.035060882568359375,
                            0.03249433636665344,
                            -0.043315112590789795,
                            0.0039077699184417725,
                            -0.03461247682571411,
                            0.10708320140838623,
                            -0.03216215968132019,
                            -0.12214893102645874,
                            0.0108051598072052,
                            -0.08475300669670105,
                            0.12129279971122742,
                            -0.006845831871032715,
                            -0.11784455180168152,
                            -0.10929068922996521
                        ],
                        [
                            0.07809591293334961,
                            0.056888848543167114,
                            0.031003624200820923,
                            -0.0710570216178894,
                            0.04001322388648987,
                            -0.11867475509643555,
                            -0.07575628161430359,
                            -0.07262042164802551,
                            -0.02528318762779236,
                            0.1225631833076477,
                            -0.07673156261444092,
                            0.06712445616722107,
                            0.1056111752986908,
                            0.060731083154678345,
                            0.10692790150642395,
                            -0.10771143436431885
                        ],
                        [
                            0.09417799115180969,
                            -0.06230655312538147,
                            -0.0796559751033783,
                            0.11981278657913208,
                            0.04923626780509949,
                            0.0007379651069641113,
                            -0.008607715368270874,
                            0.11179378628730774,
                            0.12150537967681885,
                            -0.06168714165687561,
                            -0.03856411576271057,
                            0.0513593852519989,
                            -0.1045224666595459,
                            0.08065322041511536,
                            0.005514204502105713,
                            -0.019011318683624268
                        ],
                        [
                            -0.02680298686027527,
                            0.07744988799095154,
                            -0.0011672675609588623,
                            -0.005859732627868652,
                            0.014915704727172852,
                            -0.053345710039138794,
                            0.04805922508239746,
                            -0.04611241817474365,
                            0.09711870551109314,
                            0.07019773125648499,
                            -0.06474146246910095,
                            -0.04086196422576904,
                            -0.04739847779273987,
                            -0.06069120764732361,
                            -0.09400859475135803,
                            0.008973151445388794
                        ],
                        [
                            -0.0053473711013793945,
                            -0.051004767417907715,
                            0.013451486825942993,
                            -0.10171550512313843,
                            0.12055182456970215,
                            -0.02348586916923523,
                            0.02728813886642456,
                            -0.05320790410041809,
                            0.06874662637710571,
                            0.002782851457595825,
                            0.04130953550338745,
                            0.017287105321884155,
                            -0.0448136031627655,
                            -0.119619220495224,
                            -0.08465427160263062,
                            0.055915892124176025
                        ]
                    ],
                    [
                        [
                            0.09085100889205933,
                            -0.08067783713340759,
                            0.08791658282279968,
                            0.07140710949897766,
                            0.06382670998573303,
                            -0.021619439125061035,
                            0.05497175455093384,
                            0.08758649230003357,
                            -0.032064586877822876,
                            0.017203032970428467,
                            -0.11319613456726074,
                            0.026842385530471802,
                            -0.09404444694519043,
                            0.12150883674621582,
                            -0.09064584970474243,
                            0.09167718887329102
                        ],
                        [
                            -0.12095755338668823,
                            0.013584166765213013,
                            0.07182672619819641,
                            -0.046699076890945435,
                            -0.01799812912940979,
                            -0.05351725220680237,
                            0.1081300675868988,
                            0.01724684238433838,
                            -0.026082634925842285,
                            0.06909185647964478,
                            0.0573098361492157,
                            -0.07601332664489746,
                            -0.06547319889068604,
                            0.09976187348365784,
                            -0.04133284091949463,
                            -0.030266523361206055
                        ],
                        [
                            0.12270903587341309,
                            0.03804013133049011,
                            -0.0024288594722747803,
                            0.002377539873123169,
                            0.12199947237968445,
                            0.11002087593078613,
                            0.1051035225391388,
                            -0.08790057897567749,
                            0.04414060711860657,
                            0.11357048153877258,
                            0.12316322326660156,
                            0.03829669952392578,
                            0.03802943229675293,
                            -0.04399248957633972,
                            -0.03326329588890076,
                            -0.09122079610824585
                        ],
                        [
                            0.09645915031433105,
                            0.025863736867904663,
                            0.09134668111801147,
                            0.026904165744781494,
                            0.11701864004135132,
                            0.04774928092956543,
                            0.0006938576698303223,
                            -0.05380144715309143,
                            0.048677921295166016,
                            0.021000981330871582,
                            0.12466579675674438,
                            0.03618776798248291,
                            0.059071630239486694,
                            -0.09568393230438232,
                            0.024060308933258057,
                            -0.1085328757762909
                        ],
                        [
                            0.01236686110496521,
                            0.09866070747375488,
                            0.0586337149143219,
                            -0.0007614195346832275,
                            -0.0315384566783905,
                            0.03056013584136963,
                            -0.005637496709823608,
                            0.005965113639831543,
                            0.1016908586025238,
                            -0.08743080496788025,
                            -0.10326814651489258,
                            -0.0972292423248291,
                            -0.0059070587158203125,
                            0.02905014157295227,
                            -0.008838534355163574,
                            0.050264835357666016
                        ],
                        [
                            -0.10560035705566406,
                            -0.027828752994537354,
                            0.07847699522972107,
                            0.05652514100074768,
                            -0.03227648138999939,
                            -0.08528584241867065,
                            0.01908668875694275,
                            -0.08086645603179932,
                            0.12478786706924438,
                            -0.08833867311477661,
                            0.034695446491241455,
                            0.08121246099472046,
                            -0.02975672483444214,
                            -0.039061397314071655,
                            -0.009611308574676514,
                            -0.10295403003692627
                        ],
                        [
                            0.0248241126537323,
                            0.05957770347595215,
                            -0.08579182624816895,
                            0.021908164024353027,
                            0.029063642024993896,
                            -0.0653962790966034,
                            -0.1096930205821991,
                            -0.04316425323486328,
                            -0.048277318477630615,
                            -0.10594114661216736,
                            -0.12304031848907471,
                            -0.060270875692367554,
                            0.035485804080963135,
                            0.11159545183181763,
                            -0.11419463157653809,
                            0.11282733082771301
                        ],
                        [
                            0.08161455392837524,
                            0.06303352117538452,
                            0.09632879495620728,
                            -0.017440736293792725,
                            -0.07480865716934204,
                            0.07046255469322205,
                            0.12253803014755249,
                            0.033045560121536255,
                            -0.08906733989715576,
                            0.11649706959724426,
                            -0.07039394974708557,
                            -0.11075577139854431,
                            0.12274283170700073,
                            -0.026570916175842285,
                            -0.027642756700515747,
                            -0.10315927863121033
                        ],
                        [
                            -0.0012768805027008057,
                            -0.11839979887008667,
                            -0.10555392503738403,
                            -0.09867158532142639,
                            -0.027710258960723877,
                            -0.11337849497795105,
                            0.0653541088104248,
                            -0.0713496208190918,
                            0.11685752868652344,
                            0.0047844648361206055,
                            -0.054712146520614624,
                            0.05561566352844238,
                            0.0037071406841278076,
                            0.06885862350463867,
                            -0.09649088978767395,
                            -0.02476397156715393
                        ],
                        [
                            -0.029934078454971313,
                            0.03330063819885254,
                            -0.04577013850212097,
                            -0.08614110946655273,
                            -0.023518919944763184,
                            -0.02140006422996521,
                            0.09593471884727478,
                            -0.04352462291717529,
                            0.10146534442901611,
                            0.04941418766975403,
                            -0.031244337558746338,
                            -0.0368538498878479,
                            -0.09889882802963257,
                            0.09993115067481995,
                            -0.017934560775756836,
                            0.04121297597885132
                        ],
                        [
                            -0.015344232320785522,
                            0.05963805317878723,
                            -0.0028678178787231445,
                            0.08050981163978577,
                            -0.03630802035331726,
                            0.01917967200279236,
                            -0.10891956090927124,
                            -0.12177962064743042,
                            0.03859597444534302,
                            -0.08289426565170288,
                            0.056359052658081055,
                            -0.007599830627441406,
                            -0.10189145803451538,
                            0.023916393518447876,
                            0.06007200479507446,
                            0.03725236654281616
                        ],
                        [
                            0.1170501708984375,
                            -0.015007972717285156,
                            -0.04209411144256592,
                            0.11765813827514648,
                            -0.008435279130935669,
                            0.1025426983833313,
                            -0.10249871015548706,
                            0.10266691446304321,
                            0.09281426668167114,
                            0.07966414093971252,
                            -0.09735485911369324,
                            0.027248859405517578,
                            0.11897149682044983,
                            0.06620758771896362,
                            -0.014653116464614868,
                            0.023825734853744507
                        ],
                        [
                            0.049107909202575684,
                            -0.06911703944206238,
                            0.04486823081970215,
                            0.02998727560043335,
                            0.0641821026802063,
                            -0.07178738713264465,
                            0.09959018230438232,
                            -0.10437542200088501,
                            0.05566951632499695,
                            0.013813316822052002,
                            -0.02149859070777893,
                            0.004931539297103882,
                            0.021181851625442505,
                            -0.09086883068084717,
                            -0.06326818466186523,
                            -0.11463519930839539
                        ],
                        [
                            -0.0637141764163971,
                            -0.09159955382347107,
                            0.015982896089553833,
                            0.00254783034324646,
                            -0.04778304696083069,
                            -0.11757171154022217,
                            -0.031010150909423828,
                            0.10488268733024597,
                            0.11929991841316223,
                            -0.07773664593696594,
                            0.05985543131828308,
                            0.06887844204902649,
                            0.07215914130210876,
                            -0.08688428997993469,
                            -0.022562533617019653,
                            -0.11465457081794739
                        ],
                        [
                            -0.11598178744316101,
                            -0.0400826632976532,
                            -0.06848496198654175,
                            -0.02514156699180603,
                            0.011903524398803711,
                            0.0022021234035491943,
                            -0.11414015293121338,
                            0.09798029065132141,
                            0.08484914898872375,
                            0.012833118438720703,
                            -0.03476712107658386,
                            0.05437380075454712,
                            0.12245187163352966,
                            -0.11539670825004578,
                            0.08560696244239807,
                            0.032698363065719604
                        ],
                        [
                            -0.03695082664489746,
                            -0.015956968069076538,
                            -0.015736520290374756,
                            -0.1043308675289154,
                            -0.07277980446815491,
                            -0.011883437633514404,
                            -0.1000637412071228,
                            -0.034759700298309326,
                            0.029775112867355347,
                            -0.025177359580993652,
                            -0.06276124715805054,
                            0.006156712770462036,
                            0.004001587629318237,
                            0.0004647970199584961,
                            0.10463646054267883,
                            0.10343456268310547
                        ]
                    ],
                    [
                        [
                            -0.01939225196838379,
                            0.0051749348640441895,
                            0.11966103315353394,
                            0.002081930637359619,
                            -0.055408775806427,
                            -0.03542110323905945,
                            0.0010432004928588867,
                            0.09885558485984802,
                            -0.0851687490940094,
                            -0.011783063411712646,
                            0.072695791721344,
                            0.06110420823097229,
                            0.12043362855911255,
                            -0.0978253185749054,
                            0.013807535171508789,
                            0.046358734369277954
                        ],
                        [
                            -0.03919261693954468,
                            -0.0821361243724823,
                            0.048879474401474,
                            0.043790996074676514,
                            0.05538952350616455,
                            0.05945265293121338,
                            -0.0998481810092926,
                            0.06518745422363281,
                            0.06845396757125854,
                            0.024936050176620483,
                            -0.10253086686134338,
                            -0.10196304321289062,
                            -0.0030919015407562256,
                            -0.07889583706855774,
                            0.10178986191749573,
                            -0.07470005750656128
                        ],
                        [
                            -0.03632909059524536,
                            0.04832112789154053,
                            -0.006695747375488281,
                            0.09502094984054565,
                            -0.08356067538261414,
                            -0.08811888098716736,
                            0.038071244955062866,
                            0.01733824610710144,
                            0.020463645458221436,
                            -0.026548922061920166,
                            0.1203867495059967,
                            0.034358084201812744,
                            -0.12474802136421204,
                            0.02518153190612793,
                            -0.01587355136871338,
                            -0.05116283893585205
                        ],
                        [
                            -0.03861081600189209,
                            0.05705690383911133,
                            0.014132827520370483,
                            -0.08916693925857544,
                            0.05023881793022156,
                            0.027342110872268677,
                            0.03444674611091614,
                            -0.04695767164230347,
                            0.047209233045578,
                            0.11075043678283691,
                            -0.0384824275970459,
                            -0.01711377501487732,
                            -0.08093896508216858,
                            0.04837369918823242,
                            -0.10014605522155762,
                            -0.060898035764694214
                        ],
                        [
                            0.10418343544006348,
                            0.01956188678741455,
                            0.07409012317657471,
                            0.10121411085128784,
                            -0.10793349146842957,
                            -0.015203595161437988,
                            0.001734405755996704,
                            -0.12312832474708557,
                            0.021290510892868042,
                            0.07128214836120605,
                            0.07047697901725769,
                            0.07068926095962524,
                            0.042287856340408325,
                            0.021211713552474976,
                            -0.11704316735267639,
                            -0.12347579002380371
                        ],
                        [
                            -0.061625659465789795,
                            0.024874091148376465,
                            -0.11594709753990173,
                            0.08506163954734802,
                            0.01807504892349243,
                            -0.12115395069122314,
                            -0.11423641443252563,
                            0.013215124607086182,
                            0.0007494688034057617,
                            -0.08370092511177063,
                            -0.07151177525520325,
                            0.07114741206169128,
                            0.04188409447669983,
                            0.0562436580657959,
                            -0.008561760187149048,
                            0.08053803443908691
                        ],
                        [
                            -0.0980745255947113,
                            -0.018452972173690796,
                            0.09955644607543945,
                            -0.1116926372051239,
                            0.08727148175239563,
                            0.07701733708381653,
                            0.03531080484390259,
                            0.1186031699180603,
                            0.08956491947174072,
                            -0.08726641535758972,
                            -0.027124762535095215,
                            0.05112898349761963,
                            0.0029151439666748047,
                            -0.012288123369216919,
                            -0.07521423697471619,
                            -8.189678192138672e-05
                        ],
                        [
                            -0.005225449800491333,
                            0.0329585075378418,
                            -0.05120277404785156,
                            -0.11531096696853638,
                            -0.07470068335533142,
                            -0.0011231005191802979,
                            0.07265445590019226,
                            0.07940971851348877,
                            -0.037840068340301514,
                            -0.034807801246643066,
                            0.07463636994361877,
                            0.04783540964126587,
                            0.05469125509262085,
                            -0.09275263547897339,
                            0.010979801416397095,
                            -0.07403373718261719
                        ],
                        [
                            0.012781739234924316,
                            0.09535497426986694,
                            0.10586321353912354,
                            -0.024428606033325195,
                            0.041270911693573,
                            -0.11294442415237427,
                            0.019243746995925903,
                            0.06354272365570068,
                            -0.08424386382102966,
                            -0.03869140148162842,
                            0.06697514653205872,
                            0.01405683159828186,
                            -0.007203221321105957,
                            0.11371538043022156,
                            -0.0526965856552124,
                            -0.04258283972740173
                        ],
                        [
                            0.02632075548171997,
                            -0.04824340343475342,
                            -0.05765247344970703,
                            -0.030667364597320557,
                            0.035417646169662476,
                            0.05035814642906189,
                            0.03646594285964966,
                            -0.08383959531784058,
                            -0.021884411573410034,
                            0.03462916612625122,
                            0.11362260580062866,
                            -0.1066250205039978,
                            -0.07505175471305847,
                            -0.04315802454948425,
                            -0.024751394987106323,
                            0.01892906427383423
                        ],
                        [
                            0.011993557214736938,
                            -0.08260813355445862,
                            -0.05860975384712219,
                            -0.050782740116119385,
                            -0.05463731288909912,
                            0.12042465806007385,
                            -0.031772345304489136,
                            -0.1176711916923523,
                            -0.04610779881477356,
                            0.040146082639694214,
                            -0.09920066595077515,
                            0.11083722114562988,
                            -0.007355004549026489,
                            0.10141980648040771,
                            -0.10329419374465942,
                            -0.07938763499259949
                        ],
                        [
                            0.07654392719268799,
                            0.048287004232406616,
                            -0.08052900433540344,
                            -0.028633922338485718,
                            -0.09889093041419983,
                            0.11432912945747375,
                            0.04823678731918335,
                            -0.044392019510269165,
                            -0.10517975687980652,
                            0.0716601014137268,
                            -0.02448102831840515,
                            0.11799445748329163,
                            0.05908101797103882,
                            -0.014835089445114136,
                            0.0127219557762146,
                            0.1034940779209137
                        ],
                        [
                            0.024098247289657593,
                            -0.001047372817993164,
                            0.08364459872245789,
                            -0.041516661643981934,
                            0.027256101369857788,
                            -0.10652196407318115,
                            -0.008143126964569092,
                            -0.04998818039894104,
                            0.06925010681152344,
                            0.06968167424201965,
                            0.0025799572467803955,
                            0.06373095512390137,
                            0.054070472717285156,
                            -0.03590485453605652,
                            0.03814190626144409,
                            -0.02134302258491516
                        ],
                        [
                            0.07823646068572998,
                            -0.06668046116828918,
                            0.0010798871517181396,
                            0.12444761395454407,
                            -0.002029895782470703,
                            0.05839109420776367,
                            0.05577763915061951,
                            -0.013772040605545044,
                            0.10399296879768372,
                            -0.023162931203842163,
                            0.11117464303970337,
                            0.04517516493797302,
                            0.022486180067062378,
                            -0.11230117082595825,
                            -0.05261719226837158,
                            -0.058626800775527954
                        ],
                        [
                            -0.02280619740486145,
                            0.03740042448043823,
                            -0.10842382907867432,
                            0.026113808155059814,
                            0.09777170419692993,
                            0.02099636197090149,
                            -0.05887264013290405,
                            -0.04732963442802429,
                            0.09124317765235901,
                            0.028380393981933594,
                            0.11592400074005127,
                            0.11384689807891846,
                            0.11197635531425476,
                            -0.11069226264953613,
                            -0.046242356300354004,
                            0.07174035906791687
                        ],
                        [
                            -0.09462156891822815,
                            0.0765758752822876,
                            0.01967480778694153,
                            0.004434823989868164,
                            0.11793437600135803,
                            -0.10003030300140381,
                            0.08468902111053467,
                            0.09429720044136047,
                            -0.10359710454940796,
                            0.11607339978218079,
                            0.04943254590034485,
                            0.011273801326751709,
                            -0.07555100321769714,
                            0.04211282730102539,
                            0.031196236610412598,
                            -0.11104953289031982
                        ]
                    ],
                    [
                        [
                            -0.08401775360107422,
                            0.13391263782978058,
                            0.10928557813167572,
                            -0.32294565439224243,
                            0.16416843235492706,
                            0.20520389080047607,
                            -0.14523889124393463,
                            0.2661658227443695,
                            0.1389554888010025,
                            0.2412668615579605,
                            0.3072231709957123,
                            -0.21549667418003082,
                            -0.21598148345947266,
                            0.15765807032585144,
                            -0.3243786692619324,
                            0.2799936830997467
                        ],
                        [
                            0.11561937630176544,
                            -0.18652918934822083,
                            -0.3108304738998413,
                            0.40979915857315063,
                            -0.3992755711078644,
                            -0.29704803228378296,
                            0.2689685821533203,
                            -0.2841365337371826,
                            -0.29178163409233093,
                            -0.2186179757118225,
                            -0.23843050003051758,
                            0.3106730580329895,
                            0.1794889271259308,
                            -0.26640790700912476,
                            0.3599298894405365,
                            -0.3441341817378998
                        ],
                        [
                            -0.27957212924957275,
                            0.3919002115726471,
                            0.30022504925727844,
                            -0.32489681243896484,
                            0.30158287286758423,
                            0.18738029897212982,
                            -0.22501732409000397,
                            0.41497567296028137,
                            0.14426939189434052,
                            0.29199615120887756,
                            0.2888014018535614,
                            -0.22797483205795288,
                            -0.33440202474594116,
                            0.3913925588130951,
                            -0.41927704215049744,
                            0.2029532492160797
                        ],
                        [
                            0.12851132452487946,
                            -0.4052293002605438,
                            -0.32920798659324646,
                            0.32588785886764526,
                            -0.4563349485397339,
                            -0.3878610134124756,
                            0.322934627532959,
                            -0.36084526777267456,
                            -0.13647150993347168,
                            -0.32423022389411926,
                            -0.429680734872818,
                            0.2965482771396637,
                            0.27624034881591797,
                            -0.279992014169693,
                            0.4337632358074188,
                            -0.298544317483902
                        ],
                        [
                            -0.09216523915529251,
                            0.2982828617095947,
                            0.020974455401301384,
                            -0.22409047186374664,
                            0.29084405303001404,
                            0.302651971578598,
                            -0.1507275104522705,
                            0.1637565940618515,
                            0.07421577721834183,
                            0.22231647372245789,
                            0.1349329799413681,
                            -0.3100073039531708,
                            -0.2692580819129944,
                            0.28783556818962097,
                            -0.18344400823116302,
                            0.24864621460437775
                        ],
                        [
                            -0.06327784061431885,
                            0.2844913899898529,
                            0.19736935198307037,
                            -0.3680843710899353,
                            0.3593200445175171,
                            0.30352678894996643,
                            -0.11162703484296799,
                            0.25197961926460266,
                            0.1255439966917038,
                            0.11969190835952759,
                            0.3758404850959778,
                            -0.40009889006614685,
                            -0.20118172466754913,
                            0.19130046665668488,
                            -0.32628414034843445,
                            0.34327763319015503
                        ],
                        [
                            -0.17610590159893036,
                            0.12309173494577408,
                            -0.05168405920267105,
                            0.09038862586021423,
                            -0.09406787902116776,
                            -0.07147278636693954,
                            -0.21954159438610077,
                            0.036997947841882706,
                            0.021420929580926895,
                            -0.15781661868095398,
                            0.059887006878852844,
                            0.07842924445867538,
                            0.07715020328760147,
                            -0.11584750562906265,
                            0.11601478606462479,
                            -0.12361057847738266
                        ],
                        [
                            0.13475434482097626,
                            -0.16446320712566376,
                            -0.2028806209564209,
                            0.24815869331359863,
                            -0.362988144159317,
                            -0.24392645061016083,
                            0.17827816307544708,
                            -0.37706464529037476,
                            -0.07560476660728455,
                            -0.27640441060066223,
                            -0.3482546806335449,
                            0.2415916621685028,
                            0.2833196520805359,
                            -0.17959477007389069,
                            0.39866727590560913,
                            -0.3540550470352173
                        ],
                        [
                            -0.2645072638988495,
                            0.3915581703186035,
                            0.25186631083488464,
                            -0.3472110629081726,
                            0.433698832988739,
                            0.3377498388290405,
                            -0.3140563368797302,
                            0.4091724753379822,
                            0.18962587416172028,
                            0.22250773012638092,
                            0.25149253010749817,
                            -0.43780606985092163,
                            -0.2776471674442291,
                            0.2135125696659088,
                            -0.31610816717147827,
                            0.23447662591934204
                        ],
                        [
                            -0.23603932559490204,
                            0.17391757667064667,
                            0.3577471077442169,
                            -0.416473388671875,
                            0.3825497627258301,
                            0.38667333126068115,
                            -0.3421112298965454,
                            0.3329775333404541,
                            0.07499268651008606,
                            0.2751842439174652,
                            0.4353967010974884,
                            -0.4355955421924591,
                            -0.1606525182723999,
                            0.3183444142341614,
                            -0.306602418422699,
                            0.3433239758014679
                        ],
                        [
                            -0.23385249078273773,
                            0.3915058374404907,
                            0.2519265413284302,
                            -0.316665381193161,
                            0.43774330615997314,
                            0.2822255492210388,
                            -0.21862348914146423,
                            0.38279780745506287,
                            0.28620970249176025,
                            0.13553637266159058,
                            0.2648299038410187,
                            -0.21653881669044495,
                            -0.3107503354549408,
                            0.25701093673706055,
                            -0.3947804570198059,
                            0.2978643774986267
                        ],
                        [
                            0.04027270898222923,
                            0.057210929691791534,
                            0.0266449972987175,
                            -0.015269648283720016,
                            -0.08190003782510757,
                            -0.0334676094353199,
                            -0.0565015971660614,
                            -0.19985030591487885,
                            -0.13582324981689453,
                            0.0960536003112793,
                            -0.0554780550301075,
                            0.14897263050079346,
                            0.017248518764972687,
                            0.013330300338566303,
                            0.01531327236443758,
                            -0.08931995183229446
                        ],
                        [
                            -0.017644478008151054,
                            0.07828006148338318,
                            0.051861293613910675,
                            -0.09151435643434525,
                            0.023460807278752327,
                            -0.005176124162971973,
                            0.06855569034814835,
                            0.02007969841361046,
                            -0.07524576038122177,
                            0.07489638775587082,
                            -0.10735286772251129,
                            0.029248744249343872,
                            0.10366997867822647,
                            0.0370897613465786,
                            0.08569946140050888,
                            0.059137023985385895
                        ],
                        [
                            -0.013090213760733604,
                            0.1570090353488922,
                            0.21736501157283783,
                            -0.2303687334060669,
                            0.08461640775203705,
                            0.054635144770145416,
                            -0.02880134806036949,
                            0.12803763151168823,
                            0.02040088176727295,
                            0.111801877617836,
                            0.25208359956741333,
                            -0.2286672592163086,
                            -0.20725716650485992,
                            0.3391147553920746,
                            -0.16261261701583862,
                            0.057216353714466095
                        ],
                        [
                            -0.08715231716632843,
                            0.05988450348377228,
                            0.02555934153497219,
                            -0.18713782727718353,
                            0.2034624218940735,
                            0.12437108904123306,
                            0.018435712903738022,
                            0.18168480694293976,
                            0.03609636798501015,
                            0.11060076951980591,
                            0.00026130067999474704,
                            -0.02601020038127899,
                            -0.052146703004837036,
                            -0.11796291172504425,
                            -0.14638663828372955,
                            0.02037370391190052
                        ],
                        [
                            -0.11886920779943466,
                            0.08971434831619263,
                            0.21556299924850464,
                            -0.37508267164230347,
                            0.33365505933761597,
                            0.07339787483215332,
                            -0.18486301600933075,
                            0.2296476662158966,
                            0.19230414927005768,
                            0.18272249400615692,
                            0.12592145800590515,
                            -0.3027862310409546,
                            -0.24582432210445404,
                            0.1924375742673874,
                            -0.308430552482605,
                            0.21513496339321136
                        ]
                    ],
                    [
                        [
                            -0.09588971734046936,
                            -0.019857347011566162,
                            -0.07049828767776489,
                            0.016982555389404297,
                            -0.11151880025863647,
                            -0.11964333057403564,
                            0.011217653751373291,
                            -0.12169179320335388,
                            -0.05754154920578003,
                            -0.014935433864593506,
                            -0.09466192126274109,
                            0.09365835785865784,
                            0.03989523649215698,
                            -0.06402859091758728,
                            0.04122987389564514,
                            -0.10442328453063965
                        ],
                        [
                            0.025188803672790527,
                            0.07338351011276245,
                            0.06533306837081909,
                            -0.06820636987686157,
                            -0.046666473150253296,
                            -0.010689258575439453,
                            0.07794567942619324,
                            0.010742932558059692,
                            0.009152114391326904,
                            0.05623584985733032,
                            -0.08693933486938477,
                            0.05345970392227173,
                            0.11324113607406616,
                            0.03599590063095093,
                            -0.04810944199562073,
                            -0.06575298309326172
                        ],
                        [
                            0.06432265043258667,
                            0.10120007395744324,
                            -0.10083895921707153,
                            -0.09308561682701111,
                            -0.06101328134536743,
                            -0.02402949333190918,
                            0.11928293108940125,
                            -0.10974255204200745,
                            -0.09419259428977966,
                            -0.07435253262519836,
                            0.06446963548660278,
                            -0.03388240933418274,
                            0.057398587465286255,
                            -0.013993561267852783,
                            -0.12416955828666687,
                            0.03289914131164551
                        ],
                        [
                            0.00225260853767395,
                            -0.06533375382423401,
                            -0.03070622682571411,
                            0.029586464166641235,
                            0.039544105529785156,
                            -0.054910749197006226,
                            -0.05413079261779785,
                            -0.08241572976112366,
                            -0.0008859336376190186,
                            -0.04358971118927002,
                            0.02289828658103943,
                            -0.07016003131866455,
                            -0.09079480171203613,
                            -0.029234707355499268,
                            0.08401799201965332,
                            -0.030703753232955933
                        ],
                        [
                            -0.01365208625793457,
                            0.07743731141090393,
                            -0.011821240186691284,
                            -0.0940253734588623,
                            0.09693703055381775,
                            -0.0027704238891601562,
                            -0.0009890198707580566,
                            -0.005655914545059204,
                            0.002128511667251587,
                            0.10724133253097534,
                            -0.10332894325256348,
                            0.10045653581619263,
                            -0.1001448929309845,
                            0.04375576972961426,
                            0.029469430446624756,
                            -0.03124690055847168
                        ],
                        [
                            -0.013311922550201416,
                            0.029549062252044678,
                            -0.005739092826843262,
                            -0.028791725635528564,
                            -0.0574260950088501,
                            -0.1127854585647583,
                            -0.00210726261138916,
                            0.06473472714424133,
                            -0.00971144437789917,
                            0.07537224888801575,
                            0.06159377098083496,
                            0.0366816520690918,
                            -0.010262101888656616,
                            0.02738046646118164,
                            0.020962893962860107,
                            0.12324631214141846
                        ],
                        [
                            0.04805728793144226,
                            0.11477306485176086,
                            0.11629977822303772,
                            -0.07496166229248047,
                            -0.03206625580787659,
                            0.12160825729370117,
                            -0.08390089869499207,
                            0.07979300618171692,
                            -0.05489611625671387,
                            0.09867781400680542,
                            -0.09485560655593872,
                            0.10915574431419373,
                            0.012403428554534912,
                            -0.08512169122695923,
                            0.04653197526931763,
                            -0.09553036093711853
                        ],
                        [
                            -0.06967303156852722,
                            -0.053941190242767334,
                            -0.07095077633857727,
                            0.016291260719299316,
                            0.01980575919151306,
                            0.018112748861312866,
                            0.03085869550704956,
